digraph Tree {
node [shape=box] ;
0 [label="X[0] <= 4.5\ngini = 0.616\nsamples = 446\nvalue = [231, 106, 109]"] ;
1 [label="X[1] <= 4.5\ngini = 0.625\nsamples = 176\nvalue = [67, 79, 30]"] ;
0 -> 1 [labeldistance=2.5, labelangle=45, headlabel="True"] ;
2 [label="X[0] <= 2.5\ngini = 0.571\nsamples = 44\nvalue = [25, 6, 13]"] ;
1 -> 2 ;
3 [label="X[2] <= 3.5\ngini = 0.637\nsamples = 25\nvalue = [11, 5, 9]"] ;
2 -> 3 ;
4 [label="X[0] <= 0.5\ngini = 0.64\nsamples = 10\nvalue = [4, 4, 2]"] ;
3 -> 4 ;
5 [label="gini = 0.0\nsamples = 1\nvalue = [0, 1, 0]"] ;
4 -> 5 ;
6 [label="X[0] <= 1.5\ngini = 0.642\nsamples = 9\nvalue = [4, 3, 2]"] ;
4 -> 6 ;
7 [label="X[2] <= 0.5\ngini = 0.64\nsamples = 5\nvalue = [2, 1, 2]"] ;
6 -> 7 ;
8 [label="gini = 0.0\nsamples = 1\nvalue = [0, 0, 1]"] ;
7 -> 8 ;
9 [label="X[2] <= 2.5\ngini = 0.625\nsamples = 4\nvalue = [2, 1, 1]"] ;
7 -> 9 ;
10 [label="X[2] <= 1.5\ngini = 0.444\nsamples = 3\nvalue = [2, 1, 0]"] ;
9 -> 10 ;
11 [label="X[1] <= 2.5\ngini = 0.5\nsamples = 2\nvalue = [1, 1, 0]"] ;
10 -> 11 ;
12 [label="gini = 0.0\nsamples = 1\nvalue = [0, 1, 0]"] ;
11 -> 12 ;
13 [label="gini = 0.0\nsamples = 1\nvalue = [1, 0, 0]"] ;
11 -> 13 ;
14 [label="gini = 0.0\nsamples = 1\nvalue = [1, 0, 0]"] ;
10 -> 14 ;
15 [label="gini = 0.0\nsamples = 1\nvalue = [0, 0, 1]"] ;
9 -> 15 ;
16 [label="X[2] <= 2.5\ngini = 0.5\nsamples = 4\nvalue = [2, 2, 0]"] ;
6 -> 16 ;
17 [label="X[2] <= 1.0\ngini = 0.444\nsamples = 3\nvalue = [1, 2, 0]"] ;
16 -> 17 ;
18 [label="gini = 0.5\nsamples = 2\nvalue = [1, 1, 0]"] ;
17 -> 18 ;
19 [label="gini = 0.0\nsamples = 1\nvalue = [0, 1, 0]"] ;
17 -> 19 ;
20 [label="gini = 0.0\nsamples = 1\nvalue = [1, 0, 0]"] ;
16 -> 20 ;
21 [label="X[2] <= 7.5\ngini = 0.56\nsamples = 15\nvalue = [7, 1, 7]"] ;
3 -> 21 ;
22 [label="X[1] <= 0.5\ngini = 0.486\nsamples = 12\nvalue = [7, 0, 5]"] ;
21 -> 22 ;
23 [label="gini = 0.0\nsamples = 1\nvalue = [0, 0, 1]"] ;
22 -> 23 ;
24 [label="X[1] <= 1.5\ngini = 0.463\nsamples = 11\nvalue = [7, 0, 4]"] ;
22 -> 24 ;
25 [label="gini = 0.0\nsamples = 2\nvalue = [2, 0, 0]"] ;
24 -> 25 ;
26 [label="X[1] <= 2.5\ngini = 0.494\nsamples = 9\nvalue = [5, 0, 4]"] ;
24 -> 26 ;
27 [label="X[2] <= 4.5\ngini = 0.444\nsamples = 3\nvalue = [1, 0, 2]"] ;
26 -> 27 ;
28 [label="gini = 0.0\nsamples = 1\nvalue = [1, 0, 0]"] ;
27 -> 28 ;
29 [label="gini = 0.0\nsamples = 2\nvalue = [0, 0, 2]"] ;
27 -> 29 ;
30 [label="X[2] <= 4.5\ngini = 0.444\nsamples = 6\nvalue = [4, 0, 2]"] ;
26 -> 30 ;
31 [label="gini = 0.0\nsamples = 1\nvalue = [0, 0, 1]"] ;
30 -> 31 ;
32 [label="X[2] <= 6.5\ngini = 0.32\nsamples = 5\nvalue = [4, 0, 1]"] ;
30 -> 32 ;
33 [label="X[2] <= 5.5\ngini = 0.444\nsamples = 3\nvalue = [2, 0, 1]"] ;
32 -> 33 ;
34 [label="gini = 0.0\nsamples = 1\nvalue = [1, 0, 0]"] ;
33 -> 34 ;
35 [label="gini = 0.5\nsamples = 2\nvalue = [1, 0, 1]"] ;
33 -> 35 ;
36 [label="gini = 0.0\nsamples = 2\nvalue = [2, 0, 0]"] ;
32 -> 36 ;
37 [label="X[1] <= 2.5\ngini = 0.444\nsamples = 3\nvalue = [0, 1, 2]"] ;
21 -> 37 ;
38 [label="gini = 0.0\nsamples = 1\nvalue = [0, 1, 0]"] ;
37 -> 38 ;
39 [label="gini = 0.0\nsamples = 2\nvalue = [0, 0, 2]"] ;
37 -> 39 ;
40 [label="X[2] <= 6.5\ngini = 0.41\nsamples = 19\nvalue = [14, 1, 4]"] ;
2 -> 40 ;
41 [label="X[2] <= 1.0\ngini = 0.32\nsamples = 16\nvalue = [13, 1, 2]"] ;
40 -> 41 ;
42 [label="X[1] <= 1.5\ngini = 0.5\nsamples = 2\nvalue = [1, 0, 1]"] ;
41 -> 42 ;
43 [label="gini = 0.0\nsamples = 1\nvalue = [1, 0, 0]"] ;
42 -> 43 ;
44 [label="gini = 0.0\nsamples = 1\nvalue = [0, 0, 1]"] ;
42 -> 44 ;
45 [label="X[1] <= 3.5\ngini = 0.255\nsamples = 14\nvalue = [12, 1, 1]"] ;
41 -> 45 ;
46 [label="gini = 0.0\nsamples = 8\nvalue = [8, 0, 0]"] ;
45 -> 46 ;
47 [label="X[2] <= 3.5\ngini = 0.5\nsamples = 6\nvalue = [4, 1, 1]"] ;
45 -> 47 ;
48 [label="X[2] <= 2.5\ngini = 0.5\nsamples = 2\nvalue = [1, 0, 1]"] ;
47 -> 48 ;
49 [label="gini = 0.0\nsamples = 1\nvalue = [1, 0, 0]"] ;
48 -> 49 ;
50 [label="gini = 0.0\nsamples = 1\nvalue = [0, 0, 1]"] ;
48 -> 50 ;
51 [label="X[2] <= 5.0\ngini = 0.375\nsamples = 4\nvalue = [3, 1, 0]"] ;
47 -> 51 ;
52 [label="gini = 0.0\nsamples = 2\nvalue = [2, 0, 0]"] ;
51 -> 52 ;
53 [label="gini = 0.5\nsamples = 2\nvalue = [1, 1, 0]"] ;
51 -> 53 ;
54 [label="X[2] <= 8.5\ngini = 0.444\nsamples = 3\nvalue = [1, 0, 2]"] ;
40 -> 54 ;
55 [label="gini = 0.0\nsamples = 2\nvalue = [0, 0, 2]"] ;
54 -> 55 ;
56 [label="gini = 0.0\nsamples = 1\nvalue = [1, 0, 0]"] ;
54 -> 56 ;
57 [label="X[2] <= 5.5\ngini = 0.576\nsamples = 132\nvalue = [42, 73, 17]"] ;
1 -> 57 ;
58 [label="X[2] <= 1.5\ngini = 0.594\nsamples = 61\nvalue = [28, 26, 7]"] ;
57 -> 58 ;
59 [label="X[1] <= 6.0\ngini = 0.46\nsamples = 10\nvalue = [7, 2, 1]"] ;
58 -> 59 ;
60 [label="X[0] <= 2.5\ngini = 0.625\nsamples = 4\nvalue = [1, 2, 1]"] ;
59 -> 60 ;
61 [label="gini = 0.0\nsamples = 1\nvalue = [1, 0, 0]"] ;
60 -> 61 ;
62 [label="X[0] <= 3.5\ngini = 0.444\nsamples = 3\nvalue = [0, 2, 1]"] ;
60 -> 62 ;
63 [label="gini = 0.5\nsamples = 2\nvalue = [0, 1, 1]"] ;
62 -> 63 ;
64 [label="gini = 0.0\nsamples = 1\nvalue = [0, 1, 0]"] ;
62 -> 64 ;
65 [label="gini = 0.0\nsamples = 6\nvalue = [6, 0, 0]"] ;
59 -> 65 ;
66 [label="X[1] <= 5.5\ngini = 0.595\nsamples = 51\nvalue = [21, 24, 6]"] ;
58 -> 66 ;
67 [label="gini = 0.0\nsamples = 3\nvalue = [3, 0, 0]"] ;
66 -> 67 ;
68 [label="X[0] <= 2.5\ngini = 0.594\nsamples = 48\nvalue = [18, 24, 6]"] ;
66 -> 68 ;
69 [label="X[1] <= 11.5\ngini = 0.544\nsamples = 23\nvalue = [6, 14, 3]"] ;
68 -> 69 ;
70 [label="X[1] <= 8.5\ngini = 0.403\nsamples = 12\nvalue = [2, 9, 1]"] ;
69 -> 70 ;
71 [label="X[1] <= 7.5\ngini = 0.571\nsamples = 7\nvalue = [2, 4, 1]"] ;
70 -> 71 ;
72 [label="X[0] <= 1.5\ngini = 0.444\nsamples = 6\nvalue = [2, 4, 0]"] ;
71 -> 72 ;
73 [label="gini = 0.0\nsamples = 1\nvalue = [1, 0, 0]"] ;
72 -> 73 ;
74 [label="X[1] <= 6.5\ngini = 0.32\nsamples = 5\nvalue = [1, 4, 0]"] ;
72 -> 74 ;
75 [label="gini = 0.0\nsamples = 3\nvalue = [0, 3, 0]"] ;
74 -> 75 ;
76 [label="X[2] <= 4.0\ngini = 0.5\nsamples = 2\nvalue = [1, 1, 0]"] ;
74 -> 76 ;
77 [label="gini = 0.0\nsamples = 1\nvalue = [1, 0, 0]"] ;
76 -> 77 ;
78 [label="gini = 0.0\nsamples = 1\nvalue = [0, 1, 0]"] ;
76 -> 78 ;
79 [label="gini = 0.0\nsamples = 1\nvalue = [0, 0, 1]"] ;
71 -> 79 ;
80 [label="gini = 0.0\nsamples = 5\nvalue = [0, 5, 0]"] ;
70 -> 80 ;
81 [label="X[1] <= 13.0\ngini = 0.628\nsamples = 11\nvalue = [4, 5, 2]"] ;
69 -> 81 ;
82 [label="gini = 0.0\nsamples = 2\nvalue = [2, 0, 0]"] ;
81 -> 82 ;
83 [label="X[1] <= 14.5\ngini = 0.593\nsamples = 9\nvalue = [2, 5, 2]"] ;
81 -> 83 ;
84 [label="gini = 0.0\nsamples = 1\nvalue = [0, 0, 1]"] ;
83 -> 84 ;
85 [label="X[0] <= 1.5\ngini = 0.531\nsamples = 8\nvalue = [2, 5, 1]"] ;
83 -> 85 ;
86 [label="X[1] <= 16.0\ngini = 0.667\nsamples = 3\nvalue = [1, 1, 1]"] ;
85 -> 86 ;
87 [label="gini = 0.0\nsamples = 1\nvalue = [1, 0, 0]"] ;
86 -> 87 ;
88 [label="X[1] <= 21.5\ngini = 0.5\nsamples = 2\nvalue = [0, 1, 1]"] ;
86 -> 88 ;
89 [label="gini = 0.0\nsamples = 1\nvalue = [0, 0, 1]"] ;
88 -> 89 ;
90 [label="gini = 0.0\nsamples = 1\nvalue = [0, 1, 0]"] ;
88 -> 90 ;
91 [label="X[1] <= 19.5\ngini = 0.32\nsamples = 5\nvalue = [1, 4, 0]"] ;
85 -> 91 ;
92 [label="gini = 0.0\nsamples = 4\nvalue = [0, 4, 0]"] ;
91 -> 92 ;
93 [label="gini = 0.0\nsamples = 1\nvalue = [1, 0, 0]"] ;
91 -> 93 ;
94 [label="X[1] <= 9.5\ngini = 0.595\nsamples = 25\nvalue = [12, 10, 3]"] ;
68 -> 94 ;
95 [label="X[1] <= 6.5\ngini = 0.49\nsamples = 7\nvalue = [4, 0, 3]"] ;
94 -> 95 ;
96 [label="gini = 0.0\nsamples = 2\nvalue = [2, 0, 0]"] ;
95 -> 96 ;
97 [label="X[1] <= 7.5\ngini = 0.48\nsamples = 5\nvalue = [2, 0, 3]"] ;
95 -> 97 ;
98 [label="gini = 0.0\nsamples = 2\nvalue = [0, 0, 2]"] ;
97 -> 98 ;
99 [label="X[1] <= 8.5\ngini = 0.444\nsamples = 3\nvalue = [2, 0, 1]"] ;
97 -> 99 ;
100 [label="gini = 0.0\nsamples = 2\nvalue = [2, 0, 0]"] ;
99 -> 100 ;
101 [label="gini = 0.0\nsamples = 1\nvalue = [0, 0, 1]"] ;
99 -> 101 ;
102 [label="X[1] <= 25.0\ngini = 0.494\nsamples = 18\nvalue = [8, 10, 0]"] ;
94 -> 102 ;
103 [label="X[1] <= 16.5\ngini = 0.484\nsamples = 17\nvalue = [7, 10, 0]"] ;
102 -> 103 ;
104 [label="X[1] <= 15.5\ngini = 0.5\nsamples = 12\nvalue = [6, 6, 0]"] ;
103 -> 104 ;
105 [label="X[2] <= 2.5\ngini = 0.48\nsamples = 10\nvalue = [4, 6, 0]"] ;
104 -> 105 ;
106 [label="X[0] <= 3.5\ngini = 0.444\nsamples = 3\nvalue = [2, 1, 0]"] ;
105 -> 106 ;
107 [label="gini = 0.0\nsamples = 1\nvalue = [1, 0, 0]"] ;
106 -> 107 ;
108 [label="gini = 0.5\nsamples = 2\nvalue = [1, 1, 0]"] ;
106 -> 108 ;
109 [label="X[1] <= 10.5\ngini = 0.408\nsamples = 7\nvalue = [2, 5, 0]"] ;
105 -> 109 ;
110 [label="X[0] <= 3.5\ngini = 0.5\nsamples = 2\nvalue = [1, 1, 0]"] ;
109 -> 110 ;
111 [label="gini = 0.0\nsamples = 1\nvalue = [1, 0, 0]"] ;
110 -> 111 ;
112 [label="gini = 0.0\nsamples = 1\nvalue = [0, 1, 0]"] ;
110 -> 112 ;
113 [label="X[2] <= 3.5\ngini = 0.32\nsamples = 5\nvalue = [1, 4, 0]"] ;
109 -> 113 ;
114 [label="gini = 0.0\nsamples = 3\nvalue = [0, 3, 0]"] ;
113 -> 114 ;
115 [label="X[1] <= 13.0\ngini = 0.5\nsamples = 2\nvalue = [1, 1, 0]"] ;
113 -> 115 ;
116 [label="gini = 0.0\nsamples = 1\nvalue = [0, 1, 0]"] ;
115 -> 116 ;
117 [label="gini = 0.0\nsamples = 1\nvalue = [1, 0, 0]"] ;
115 -> 117 ;
118 [label="gini = 0.0\nsamples = 2\nvalue = [2, 0, 0]"] ;
104 -> 118 ;
119 [label="X[1] <= 21.0\ngini = 0.32\nsamples = 5\nvalue = [1, 4, 0]"] ;
103 -> 119 ;
120 [label="gini = 0.0\nsamples = 3\nvalue = [0, 3, 0]"] ;
119 -> 120 ;
121 [label="X[1] <= 23.0\ngini = 0.5\nsamples = 2\nvalue = [1, 1, 0]"] ;
119 -> 121 ;
122 [label="gini = 0.0\nsamples = 1\nvalue = [1, 0, 0]"] ;
121 -> 122 ;
123 [label="gini = 0.0\nsamples = 1\nvalue = [0, 1, 0]"] ;
121 -> 123 ;
124 [label="gini = 0.0\nsamples = 1\nvalue = [1, 0, 0]"] ;
102 -> 124 ;
125 [label="X[0] <= 3.5\ngini = 0.503\nsamples = 71\nvalue = [14, 47, 10]"] ;
57 -> 125 ;
126 [label="X[1] <= 7.5\ngini = 0.417\nsamples = 54\nvalue = [8, 40, 6]"] ;
125 -> 126 ;
127 [label="X[1] <= 6.5\ngini = 0.617\nsamples = 16\nvalue = [3, 8, 5]"] ;
126 -> 127 ;
128 [label="X[2] <= 7.5\ngini = 0.43\nsamples = 11\nvalue = [1, 8, 2]"] ;
127 -> 128 ;
129 [label="gini = 0.0\nsamples = 5\nvalue = [0, 5, 0]"] ;
128 -> 129 ;
130 [label="X[2] <= 8.5\ngini = 0.611\nsamples = 6\nvalue = [1, 3, 2]"] ;
128 -> 130 ;
131 [label="X[0] <= 1.5\ngini = 0.444\nsamples = 3\nvalue = [1, 0, 2]"] ;
130 -> 131 ;
132 [label="gini = 0.0\nsamples = 1\nvalue = [0, 0, 1]"] ;
131 -> 132 ;
133 [label="X[0] <= 2.5\ngini = 0.5\nsamples = 2\nvalue = [1, 0, 1]"] ;
131 -> 133 ;
134 [label="gini = 0.0\nsamples = 1\nvalue = [1, 0, 0]"] ;
133 -> 134 ;
135 [label="gini = 0.0\nsamples = 1\nvalue = [0, 0, 1]"] ;
133 -> 135 ;
136 [label="gini = 0.0\nsamples = 3\nvalue = [0, 3, 0]"] ;
130 -> 136 ;
137 [label="X[0] <= 0.5\ngini = 0.48\nsamples = 5\nvalue = [2, 0, 3]"] ;
127 -> 137 ;
138 [label="gini = 0.0\nsamples = 1\nvalue = [0, 0, 1]"] ;
137 -> 138 ;
139 [label="X[0] <= 2.0\ngini = 0.5\nsamples = 4\nvalue = [2, 0, 2]"] ;
137 -> 139 ;
140 [label="gini = 0.0\nsamples = 1\nvalue = [1, 0, 0]"] ;
139 -> 140 ;
141 [label="X[2] <= 6.5\ngini = 0.444\nsamples = 3\nvalue = [1, 0, 2]"] ;
139 -> 141 ;
142 [label="gini = 0.5\nsamples = 2\nvalue = [1, 0, 1]"] ;
141 -> 142 ;
143 [label="gini = 0.0\nsamples = 1\nvalue = [0, 0, 1]"] ;
141 -> 143 ;
144 [label="X[1] <= 16.5\ngini = 0.273\nsamples = 38\nvalue = [5, 32, 1]"] ;
126 -> 144 ;
145 [label="X[0] <= 2.5\ngini = 0.349\nsamples = 28\nvalue = [5, 22, 1]"] ;
144 -> 145 ;
146 [label="X[0] <= 1.5\ngini = 0.277\nsamples = 19\nvalue = [2, 16, 1]"] ;
145 -> 146 ;
147 [label="X[2] <= 8.5\ngini = 0.494\nsamples = 9\nvalue = [2, 6, 1]"] ;
146 -> 147 ;
148 [label="X[1] <= 12.0\ngini = 0.278\nsamples = 6\nvalue = [0, 5, 1]"] ;
147 -> 148 ;
149 [label="gini = 0.0\nsamples = 4\nvalue = [0, 4, 0]"] ;
148 -> 149 ;
150 [label="X[1] <= 14.0\ngini = 0.5\nsamples = 2\nvalue = [0, 1, 1]"] ;
148 -> 150 ;
151 [label="gini = 0.0\nsamples = 1\nvalue = [0, 0, 1]"] ;
150 -> 151 ;
152 [label="gini = 0.0\nsamples = 1\nvalue = [0, 1, 0]"] ;
150 -> 152 ;
153 [label="X[0] <= 0.5\ngini = 0.444\nsamples = 3\nvalue = [2, 1, 0]"] ;
147 -> 153 ;
154 [label="X[2] <= 9.5\ngini = 0.5\nsamples = 2\nvalue = [1, 1, 0]"] ;
153 -> 154 ;
155 [label="gini = 0.0\nsamples = 1\nvalue = [0, 1, 0]"] ;
154 -> 155 ;
156 [label="gini = 0.0\nsamples = 1\nvalue = [1, 0, 0]"] ;
154 -> 156 ;
157 [label="gini = 0.0\nsamples = 1\nvalue = [1, 0, 0]"] ;
153 -> 157 ;
158 [label="gini = 0.0\nsamples = 10\nvalue = [0, 10, 0]"] ;
146 -> 158 ;
159 [label="X[2] <= 6.5\ngini = 0.444\nsamples = 9\nvalue = [3, 6, 0]"] ;
145 -> 159 ;
160 [label="gini = 0.0\nsamples = 2\nvalue = [2, 0, 0]"] ;
159 -> 160 ;
161 [label="X[1] <= 12.5\ngini = 0.245\nsamples = 7\nvalue = [1, 6, 0]"] ;
159 -> 161 ;
162 [label="gini = 0.0\nsamples = 5\nvalue = [0, 5, 0]"] ;
161 -> 162 ;
163 [label="X[1] <= 13.5\ngini = 0.5\nsamples = 2\nvalue = [1, 1, 0]"] ;
161 -> 163 ;
164 [label="gini = 0.0\nsamples = 1\nvalue = [1, 0, 0]"] ;
163 -> 164 ;
165 [label="gini = 0.0\nsamples = 1\nvalue = [0, 1, 0]"] ;
163 -> 165 ;
166 [label="gini = 0.0\nsamples = 10\nvalue = [0, 10, 0]"] ;
144 -> 166 ;
167 [label="X[1] <= 19.5\ngini = 0.651\nsamples = 17\nvalue = [6, 7, 4]"] ;
125 -> 167 ;
168 [label="X[2] <= 8.5\ngini = 0.639\nsamples = 13\nvalue = [6, 3, 4]"] ;
167 -> 168 ;
169 [label="X[2] <= 6.5\ngini = 0.406\nsamples = 8\nvalue = [6, 1, 1]"] ;
168 -> 169 ;
170 [label="X[1] <= 6.0\ngini = 0.625\nsamples = 4\nvalue = [2, 1, 1]"] ;
169 -> 170 ;
171 [label="gini = 0.0\nsamples = 1\nvalue = [1, 0, 0]"] ;
170 -> 171 ;
172 [label="X[1] <= 9.0\ngini = 0.667\nsamples = 3\nvalue = [1, 1, 1]"] ;
170 -> 172 ;
173 [label="gini = 0.0\nsamples = 1\nvalue = [0, 1, 0]"] ;
172 -> 173 ;
174 [label="X[1] <= 14.5\ngini = 0.5\nsamples = 2\nvalue = [1, 0, 1]"] ;
172 -> 174 ;
175 [label="gini = 0.0\nsamples = 1\nvalue = [0, 0, 1]"] ;
174 -> 175 ;
176 [label="gini = 0.0\nsamples = 1\nvalue = [1, 0, 0]"] ;
174 -> 176 ;
177 [label="gini = 0.0\nsamples = 4\nvalue = [4, 0, 0]"] ;
169 -> 177 ;
178 [label="X[1] <= 12.5\ngini = 0.48\nsamples = 5\nvalue = [0, 2, 3]"] ;
168 -> 178 ;
179 [label="gini = 0.0\nsamples = 2\nvalue = [0, 0, 2]"] ;
178 -> 179 ;
180 [label="X[1] <= 17.5\ngini = 0.444\nsamples = 3\nvalue = [0, 2, 1]"] ;
178 -> 180 ;
181 [label="gini = 0.0\nsamples = 2\nvalue = [0, 2, 0]"] ;
180 -> 181 ;
182 [label="gini = 0.0\nsamples = 1\nvalue = [0, 0, 1]"] ;
180 -> 182 ;
183 [label="gini = 0.0\nsamples = 4\nvalue = [0, 4, 0]"] ;
167 -> 183 ;
184 [label="X[1] <= 16.5\ngini = 0.535\nsamples = 270\nvalue = [164, 27, 79]"] ;
0 -> 184 [labeldistance=2.5, labelangle=-45, headlabel="False"] ;
185 [label="X[2] <= 4.5\ngini = 0.554\nsamples = 197\nvalue = [109, 16, 72]"] ;
184 -> 185 ;
186 [label="X[0] <= 9.5\ngini = 0.508\nsamples = 109\nvalue = [69, 8, 32]"] ;
185 -> 186 ;
187 [label="X[0] <= 8.5\ngini = 0.477\nsamples = 64\nvalue = [44, 8, 12]"] ;
186 -> 187 ;
188 [label="X[1] <= 13.5\ngini = 0.532\nsamples = 54\nvalue = [34, 8, 12]"] ;
187 -> 188 ;
189 [label="X[2] <= 1.5\ngini = 0.499\nsamples = 46\nvalue = [30, 4, 12]"] ;
188 -> 189 ;
190 [label="X[1] <= 10.5\ngini = 0.571\nsamples = 7\nvalue = [2, 1, 4]"] ;
189 -> 190 ;
191 [label="gini = 0.0\nsamples = 4\nvalue = [0, 0, 4]"] ;
190 -> 191 ;
192 [label="X[0] <= 6.5\ngini = 0.444\nsamples = 3\nvalue = [2, 1, 0]"] ;
190 -> 192 ;
193 [label="gini = 0.0\nsamples = 1\nvalue = [0, 1, 0]"] ;
192 -> 193 ;
194 [label="gini = 0.0\nsamples = 2\nvalue = [2, 0, 0]"] ;
192 -> 194 ;
195 [label="X[0] <= 6.5\ngini = 0.437\nsamples = 39\nvalue = [28, 3, 8]"] ;
189 -> 195 ;
196 [label="X[1] <= 9.5\ngini = 0.398\nsamples = 16\nvalue = [12, 3, 1]"] ;
195 -> 196 ;
197 [label="gini = 0.0\nsamples = 9\nvalue = [9, 0, 0]"] ;
196 -> 197 ;
198 [label="X[1] <= 10.5\ngini = 0.612\nsamples = 7\nvalue = [3, 3, 1]"] ;
196 -> 198 ;
199 [label="gini = 0.0\nsamples = 3\nvalue = [0, 3, 0]"] ;
198 -> 199 ;
200 [label="X[2] <= 2.5\ngini = 0.375\nsamples = 4\nvalue = [3, 0, 1]"] ;
198 -> 200 ;
201 [label="gini = 0.0\nsamples = 1\nvalue = [0, 0, 1]"] ;
200 -> 201 ;
202 [label="gini = 0.0\nsamples = 3\nvalue = [3, 0, 0]"] ;
200 -> 202 ;
203 [label="X[1] <= 8.5\ngini = 0.423\nsamples = 23\nvalue = [16, 0, 7]"] ;
195 -> 203 ;
204 [label="X[1] <= 3.5\ngini = 0.494\nsamples = 9\nvalue = [5, 0, 4]"] ;
203 -> 204 ;
205 [label="gini = 0.0\nsamples = 2\nvalue = [2, 0, 0]"] ;
204 -> 205 ;
206 [label="X[1] <= 4.5\ngini = 0.49\nsamples = 7\nvalue = [3, 0, 4]"] ;
204 -> 206 ;
207 [label="gini = 0.0\nsamples = 1\nvalue = [0, 0, 1]"] ;
206 -> 207 ;
208 [label="X[1] <= 6.0\ngini = 0.5\nsamples = 6\nvalue = [3, 0, 3]"] ;
206 -> 208 ;
209 [label="gini = 0.0\nsamples = 1\nvalue = [1, 0, 0]"] ;
208 -> 209 ;
210 [label="X[2] <= 2.5\ngini = 0.48\nsamples = 5\nvalue = [2, 0, 3]"] ;
208 -> 210 ;
211 [label="gini = 0.0\nsamples = 1\nvalue = [0, 0, 1]"] ;
210 -> 211 ;
212 [label="X[1] <= 7.5\ngini = 0.5\nsamples = 4\nvalue = [2, 0, 2]"] ;
210 -> 212 ;
213 [label="X[0] <= 7.5\ngini = 0.444\nsamples = 3\nvalue = [1, 0, 2]"] ;
212 -> 213 ;
214 [label="gini = 0.5\nsamples = 2\nvalue = [1, 0, 1]"] ;
213 -> 214 ;
215 [label="gini = 0.0\nsamples = 1\nvalue = [0, 0, 1]"] ;
213 -> 215 ;
216 [label="gini = 0.0\nsamples = 1\nvalue = [1, 0, 0]"] ;
212 -> 216 ;
217 [label="X[2] <= 2.5\ngini = 0.337\nsamples = 14\nvalue = [11, 0, 3]"] ;
203 -> 217 ;
218 [label="X[1] <= 12.5\ngini = 0.48\nsamples = 5\nvalue = [3, 0, 2]"] ;
217 -> 218 ;
219 [label="X[1] <= 11.5\ngini = 0.444\nsamples = 3\nvalue = [1, 0, 2]"] ;
218 -> 219 ;
220 [label="gini = 0.5\nsamples = 2\nvalue = [1, 0, 1]"] ;
219 -> 220 ;
221 [label="gini = 0.0\nsamples = 1\nvalue = [0, 0, 1]"] ;
219 -> 221 ;
222 [label="gini = 0.0\nsamples = 2\nvalue = [2, 0, 0]"] ;
218 -> 222 ;
223 [label="X[1] <= 11.5\ngini = 0.198\nsamples = 9\nvalue = [8, 0, 1]"] ;
217 -> 223 ;
224 [label="gini = 0.0\nsamples = 6\nvalue = [6, 0, 0]"] ;
223 -> 224 ;
225 [label="X[0] <= 7.5\ngini = 0.444\nsamples = 3\nvalue = [2, 0, 1]"] ;
223 -> 225 ;
226 [label="gini = 0.0\nsamples = 2\nvalue = [2, 0, 0]"] ;
225 -> 226 ;
227 [label="gini = 0.0\nsamples = 1\nvalue = [0, 0, 1]"] ;
225 -> 227 ;
228 [label="X[2] <= 3.5\ngini = 0.5\nsamples = 8\nvalue = [4, 4, 0]"] ;
188 -> 228 ;
229 [label="X[1] <= 14.5\ngini = 0.444\nsamples = 6\nvalue = [4, 2, 0]"] ;
228 -> 229 ;
230 [label="gini = 0.0\nsamples = 2\nvalue = [2, 0, 0]"] ;
229 -> 230 ;
231 [label="X[1] <= 15.5\ngini = 0.5\nsamples = 4\nvalue = [2, 2, 0]"] ;
229 -> 231 ;
232 [label="gini = 0.0\nsamples = 1\nvalue = [0, 1, 0]"] ;
231 -> 232 ;
233 [label="X[2] <= 2.5\ngini = 0.444\nsamples = 3\nvalue = [2, 1, 0]"] ;
231 -> 233 ;
234 [label="gini = 0.0\nsamples = 1\nvalue = [1, 0, 0]"] ;
233 -> 234 ;
235 [label="gini = 0.5\nsamples = 2\nvalue = [1, 1, 0]"] ;
233 -> 235 ;
236 [label="gini = 0.0\nsamples = 2\nvalue = [0, 2, 0]"] ;
228 -> 236 ;
237 [label="gini = 0.0\nsamples = 10\nvalue = [10, 0, 0]"] ;
187 -> 237 ;
238 [label="X[0] <= 11.5\ngini = 0.494\nsamples = 45\nvalue = [25, 0, 20]"] ;
186 -> 238 ;
239 [label="X[0] <= 10.5\ngini = 0.488\nsamples = 19\nvalue = [8, 0, 11]"] ;
238 -> 239 ;
240 [label="X[1] <= 14.5\ngini = 0.463\nsamples = 11\nvalue = [7, 0, 4]"] ;
239 -> 240 ;
241 [label="X[1] <= 5.0\ngini = 0.494\nsamples = 9\nvalue = [5, 0, 4]"] ;
240 -> 241 ;
242 [label="gini = 0.0\nsamples = 1\nvalue = [1, 0, 0]"] ;
241 -> 242 ;
243 [label="X[1] <= 6.5\ngini = 0.5\nsamples = 8\nvalue = [4, 0, 4]"] ;
241 -> 243 ;
244 [label="gini = 0.0\nsamples = 1\nvalue = [0, 0, 1]"] ;
243 -> 244 ;
245 [label="X[1] <= 9.0\ngini = 0.49\nsamples = 7\nvalue = [4, 0, 3]"] ;
243 -> 245 ;
246 [label="gini = 0.0\nsamples = 1\nvalue = [1, 0, 0]"] ;
245 -> 246 ;
247 [label="X[2] <= 3.5\ngini = 0.5\nsamples = 6\nvalue = [3, 0, 3]"] ;
245 -> 247 ;
248 [label="X[1] <= 12.0\ngini = 0.48\nsamples = 5\nvalue = [2, 0, 3]"] ;
247 -> 248 ;
249 [label="X[2] <= 1.5\ngini = 0.5\nsamples = 4\nvalue = [2, 0, 2]"] ;
248 -> 249 ;
250 [label="gini = 0.5\nsamples = 2\nvalue = [1, 0, 1]"] ;
249 -> 250 ;
251 [label="gini = 0.5\nsamples = 2\nvalue = [1, 0, 1]"] ;
249 -> 251 ;
252 [label="gini = 0.0\nsamples = 1\nvalue = [0, 0, 1]"] ;
248 -> 252 ;
253 [label="gini = 0.0\nsamples = 1\nvalue = [1, 0, 0]"] ;
247 -> 253 ;
254 [label="gini = 0.0\nsamples = 2\nvalue = [2, 0, 0]"] ;
240 -> 254 ;
255 [label="X[1] <= 12.0\ngini = 0.219\nsamples = 8\nvalue = [1, 0, 7]"] ;
239 -> 255 ;
256 [label="gini = 0.0\nsamples = 6\nvalue = [0, 0, 6]"] ;
255 -> 256 ;
257 [label="X[2] <= 3.0\ngini = 0.5\nsamples = 2\nvalue = [1, 0, 1]"] ;
255 -> 257 ;
258 [label="gini = 0.0\nsamples = 1\nvalue = [0, 0, 1]"] ;
257 -> 258 ;
259 [label="gini = 0.0\nsamples = 1\nvalue = [1, 0, 0]"] ;
257 -> 259 ;
260 [label="X[0] <= 15.5\ngini = 0.453\nsamples = 26\nvalue = [17, 0, 9]"] ;
238 -> 260 ;
261 [label="X[0] <= 12.5\ngini = 0.305\nsamples = 16\nvalue = [13, 0, 3]"] ;
260 -> 261 ;
262 [label="X[1] <= 11.5\ngini = 0.42\nsamples = 10\nvalue = [7, 0, 3]"] ;
261 -> 262 ;
263 [label="X[2] <= 2.0\ngini = 0.278\nsamples = 6\nvalue = [5, 0, 1]"] ;
262 -> 263 ;
264 [label="gini = 0.0\nsamples = 2\nvalue = [2, 0, 0]"] ;
263 -> 264 ;
265 [label="X[1] <= 9.5\ngini = 0.375\nsamples = 4\nvalue = [3, 0, 1]"] ;
263 -> 265 ;
266 [label="X[1] <= 7.5\ngini = 0.5\nsamples = 2\nvalue = [1, 0, 1]"] ;
265 -> 266 ;
267 [label="gini = 0.0\nsamples = 1\nvalue = [1, 0, 0]"] ;
266 -> 267 ;
268 [label="gini = 0.0\nsamples = 1\nvalue = [0, 0, 1]"] ;
266 -> 268 ;
269 [label="gini = 0.0\nsamples = 2\nvalue = [2, 0, 0]"] ;
265 -> 269 ;
270 [label="X[2] <= 2.0\ngini = 0.5\nsamples = 4\nvalue = [2, 0, 2]"] ;
262 -> 270 ;
271 [label="gini = 0.0\nsamples = 1\nvalue = [0, 0, 1]"] ;
270 -> 271 ;
272 [label="X[2] <= 3.5\ngini = 0.444\nsamples = 3\nvalue = [2, 0, 1]"] ;
270 -> 272 ;
273 [label="gini = 0.0\nsamples = 2\nvalue = [2, 0, 0]"] ;
272 -> 273 ;
274 [label="gini = 0.0\nsamples = 1\nvalue = [0, 0, 1]"] ;
272 -> 274 ;
275 [label="gini = 0.0\nsamples = 6\nvalue = [6, 0, 0]"] ;
261 -> 275 ;
276 [label="X[0] <= 16.5\ngini = 0.48\nsamples = 10\nvalue = [4, 0, 6]"] ;
260 -> 276 ;
277 [label="gini = 0.0\nsamples = 2\nvalue = [0, 0, 2]"] ;
276 -> 277 ;
278 [label="X[0] <= 17.5\ngini = 0.5\nsamples = 8\nvalue = [4, 0, 4]"] ;
276 -> 278 ;
279 [label="gini = 0.0\nsamples = 2\nvalue = [2, 0, 0]"] ;
278 -> 279 ;
280 [label="X[0] <= 20.5\ngini = 0.444\nsamples = 6\nvalue = [2, 0, 4]"] ;
278 -> 280 ;
281 [label="X[0] <= 19.0\ngini = 0.48\nsamples = 5\nvalue = [2, 0, 3]"] ;
280 -> 281 ;
282 [label="X[2] <= 2.0\ngini = 0.375\nsamples = 4\nvalue = [1, 0, 3]"] ;
281 -> 282 ;
283 [label="gini = 0.0\nsamples = 1\nvalue = [0, 0, 1]"] ;
282 -> 283 ;
284 [label="X[2] <= 3.5\ngini = 0.444\nsamples = 3\nvalue = [1, 0, 2]"] ;
282 -> 284 ;
285 [label="X[1] <= 13.0\ngini = 0.5\nsamples = 2\nvalue = [1, 0, 1]"] ;
284 -> 285 ;
286 [label="gini = 0.0\nsamples = 1\nvalue = [1, 0, 0]"] ;
285 -> 286 ;
287 [label="gini = 0.0\nsamples = 1\nvalue = [0, 0, 1]"] ;
285 -> 287 ;
288 [label="gini = 0.0\nsamples = 1\nvalue = [0, 0, 1]"] ;
284 -> 288 ;
289 [label="gini = 0.0\nsamples = 1\nvalue = [1, 0, 0]"] ;
281 -> 289 ;
290 [label="gini = 0.0\nsamples = 1\nvalue = [0, 0, 1]"] ;
280 -> 290 ;
291 [label="X[1] <= 5.5\ngini = 0.579\nsamples = 88\nvalue = [40, 8, 40]"] ;
185 -> 291 ;
292 [label="X[2] <= 8.0\ngini = 0.34\nsamples = 10\nvalue = [1, 1, 8]"] ;
291 -> 292 ;
293 [label="gini = 0.0\nsamples = 7\nvalue = [0, 0, 7]"] ;
292 -> 293 ;
294 [label="X[1] <= 2.0\ngini = 0.667\nsamples = 3\nvalue = [1, 1, 1]"] ;
292 -> 294 ;
295 [label="gini = 0.0\nsamples = 1\nvalue = [1, 0, 0]"] ;
294 -> 295 ;
296 [label="X[1] <= 3.5\ngini = 0.5\nsamples = 2\nvalue = [0, 1, 1]"] ;
294 -> 296 ;
297 [label="gini = 0.0\nsamples = 1\nvalue = [0, 1, 0]"] ;
296 -> 297 ;
298 [label="gini = 0.0\nsamples = 1\nvalue = [0, 0, 1]"] ;
296 -> 298 ;
299 [label="X[2] <= 6.5\ngini = 0.574\nsamples = 78\nvalue = [39, 7, 32]"] ;
291 -> 299 ;
300 [label="X[0] <= 7.5\ngini = 0.523\nsamples = 42\nvalue = [20, 1, 21]"] ;
299 -> 300 ;
301 [label="X[1] <= 12.5\ngini = 0.444\nsamples = 15\nvalue = [5, 0, 10]"] ;
300 -> 301 ;
302 [label="X[1] <= 7.5\ngini = 0.198\nsamples = 9\nvalue = [1, 0, 8]"] ;
301 -> 302 ;
303 [label="X[1] <= 6.5\ngini = 0.5\nsamples = 2\nvalue = [1, 0, 1]"] ;
302 -> 303 ;
304 [label="gini = 0.0\nsamples = 1\nvalue = [0, 0, 1]"] ;
303 -> 304 ;
305 [label="gini = 0.0\nsamples = 1\nvalue = [1, 0, 0]"] ;
303 -> 305 ;
306 [label="gini = 0.0\nsamples = 7\nvalue = [0, 0, 7]"] ;
302 -> 306 ;
307 [label="X[0] <= 6.5\ngini = 0.444\nsamples = 6\nvalue = [4, 0, 2]"] ;
301 -> 307 ;
308 [label="X[1] <= 15.5\ngini = 0.32\nsamples = 5\nvalue = [4, 0, 1]"] ;
307 -> 308 ;
309 [label="gini = 0.0\nsamples = 3\nvalue = [3, 0, 0]"] ;
308 -> 309 ;
310 [label="gini = 0.5\nsamples = 2\nvalue = [1, 0, 1]"] ;
308 -> 310 ;
311 [label="gini = 0.0\nsamples = 1\nvalue = [0, 0, 1]"] ;
307 -> 311 ;
312 [label="X[1] <= 15.5\ngini = 0.524\nsamples = 27\nvalue = [15, 1, 11]"] ;
300 -> 312 ;
313 [label="X[0] <= 15.5\ngini = 0.509\nsamples = 25\nvalue = [15, 1, 9]"] ;
312 -> 313 ;
314 [label="X[1] <= 12.5\ngini = 0.497\nsamples = 24\nvalue = [15, 1, 8]"] ;
313 -> 314 ;
315 [label="X[1] <= 11.5\ngini = 0.355\nsamples = 13\nvalue = [10, 0, 3]"] ;
314 -> 315 ;
316 [label="X[1] <= 9.5\ngini = 0.42\nsamples = 10\nvalue = [7, 0, 3]"] ;
315 -> 316 ;
317 [label="X[0] <= 10.5\ngini = 0.278\nsamples = 6\nvalue = [5, 0, 1]"] ;
316 -> 317 ;
318 [label="gini = 0.0\nsamples = 2\nvalue = [2, 0, 0]"] ;
317 -> 318 ;
319 [label="X[1] <= 7.5\ngini = 0.375\nsamples = 4\nvalue = [3, 0, 1]"] ;
317 -> 319 ;
320 [label="gini = 0.5\nsamples = 2\nvalue = [1, 0, 1]"] ;
319 -> 320 ;
321 [label="gini = 0.0\nsamples = 2\nvalue = [2, 0, 0]"] ;
319 -> 321 ;
322 [label="X[1] <= 10.5\ngini = 0.5\nsamples = 4\nvalue = [2, 0, 2]"] ;
316 -> 322 ;
323 [label="gini = 0.0\nsamples = 1\nvalue = [0, 0, 1]"] ;
322 -> 323 ;
324 [label="X[0] <= 12.0\ngini = 0.444\nsamples = 3\nvalue = [2, 0, 1]"] ;
322 -> 324 ;
325 [label="gini = 0.5\nsamples = 2\nvalue = [1, 0, 1]"] ;
324 -> 325 ;
326 [label="gini = 0.0\nsamples = 1\nvalue = [1, 0, 0]"] ;
324 -> 326 ;
327 [label="gini = 0.0\nsamples = 3\nvalue = [3, 0, 0]"] ;
315 -> 327 ;
328 [label="X[0] <= 13.5\ngini = 0.579\nsamples = 11\nvalue = [5, 1, 5]"] ;
314 -> 328 ;
329 [label="X[0] <= 9.5\ngini = 0.5\nsamples = 6\nvalue = [1, 1, 4]"] ;
328 -> 329 ;
330 [label="X[1] <= 13.5\ngini = 0.5\nsamples = 2\nvalue = [1, 0, 1]"] ;
329 -> 330 ;
331 [label="gini = 0.0\nsamples = 1\nvalue = [0, 0, 1]"] ;
330 -> 331 ;
332 [label="gini = 0.0\nsamples = 1\nvalue = [1, 0, 0]"] ;
330 -> 332 ;
333 [label="X[0] <= 10.5\ngini = 0.375\nsamples = 4\nvalue = [0, 1, 3]"] ;
329 -> 333 ;
334 [label="X[1] <= 14.0\ngini = 0.5\nsamples = 2\nvalue = [0, 1, 1]"] ;
333 -> 334 ;
335 [label="gini = 0.0\nsamples = 1\nvalue = [0, 1, 0]"] ;
334 -> 335 ;
336 [label="gini = 0.0\nsamples = 1\nvalue = [0, 0, 1]"] ;
334 -> 336 ;
337 [label="gini = 0.0\nsamples = 2\nvalue = [0, 0, 2]"] ;
333 -> 337 ;
338 [label="X[1] <= 14.0\ngini = 0.32\nsamples = 5\nvalue = [4, 0, 1]"] ;
328 -> 338 ;
339 [label="X[0] <= 14.5\ngini = 0.444\nsamples = 3\nvalue = [2, 0, 1]"] ;
338 -> 339 ;
340 [label="gini = 0.0\nsamples = 1\nvalue = [1, 0, 0]"] ;
339 -> 340 ;
341 [label="gini = 0.5\nsamples = 2\nvalue = [1, 0, 1]"] ;
339 -> 341 ;
342 [label="gini = 0.0\nsamples = 2\nvalue = [2, 0, 0]"] ;
338 -> 342 ;
343 [label="gini = 0.0\nsamples = 1\nvalue = [0, 0, 1]"] ;
313 -> 343 ;
344 [label="gini = 0.0\nsamples = 2\nvalue = [0, 0, 2]"] ;
312 -> 344 ;
345 [label="X[2] <= 8.5\ngini = 0.6\nsamples = 36\nvalue = [19, 6, 11]"] ;
299 -> 345 ;
346 [label="X[0] <= 13.5\ngini = 0.547\nsamples = 26\nvalue = [16, 5, 5]"] ;
345 -> 346 ;
347 [label="X[0] <= 5.5\ngini = 0.497\nsamples = 24\nvalue = [16, 5, 3]"] ;
346 -> 347 ;
348 [label="X[2] <= 7.5\ngini = 0.611\nsamples = 6\nvalue = [2, 3, 1]"] ;
347 -> 348 ;
349 [label="X[1] <= 7.0\ngini = 0.625\nsamples = 4\nvalue = [2, 1, 1]"] ;
348 -> 349 ;
350 [label="gini = 0.0\nsamples = 1\nvalue = [1, 0, 0]"] ;
349 -> 350 ;
351 [label="X[1] <= 10.5\ngini = 0.667\nsamples = 3\nvalue = [1, 1, 1]"] ;
349 -> 351 ;
352 [label="gini = 0.0\nsamples = 1\nvalue = [0, 0, 1]"] ;
351 -> 352 ;
353 [label="X[1] <= 13.5\ngini = 0.5\nsamples = 2\nvalue = [1, 1, 0]"] ;
351 -> 353 ;
354 [label="gini = 0.0\nsamples = 1\nvalue = [0, 1, 0]"] ;
353 -> 354 ;
355 [label="gini = 0.0\nsamples = 1\nvalue = [1, 0, 0]"] ;
353 -> 355 ;
356 [label="gini = 0.0\nsamples = 2\nvalue = [0, 2, 0]"] ;
348 -> 356 ;
357 [label="X[1] <= 6.5\ngini = 0.37\nsamples = 18\nvalue = [14, 2, 2]"] ;
347 -> 357 ;
358 [label="X[0] <= 6.5\ngini = 0.667\nsamples = 3\nvalue = [1, 1, 1]"] ;
357 -> 358 ;
359 [label="gini = 0.0\nsamples = 1\nvalue = [1, 0, 0]"] ;
358 -> 359 ;
360 [label="X[0] <= 9.0\ngini = 0.5\nsamples = 2\nvalue = [0, 1, 1]"] ;
358 -> 360 ;
361 [label="gini = 0.0\nsamples = 1\nvalue = [0, 1, 0]"] ;
360 -> 361 ;
362 [label="gini = 0.0\nsamples = 1\nvalue = [0, 0, 1]"] ;
360 -> 362 ;
363 [label="X[0] <= 9.5\ngini = 0.24\nsamples = 15\nvalue = [13, 1, 1]"] ;
357 -> 363 ;
364 [label="X[0] <= 7.5\ngini = 0.18\nsamples = 10\nvalue = [9, 1, 0]"] ;
363 -> 364 ;
365 [label="X[2] <= 7.5\ngini = 0.278\nsamples = 6\nvalue = [5, 1, 0]"] ;
364 -> 365 ;
366 [label="X[1] <= 9.5\ngini = 0.444\nsamples = 3\nvalue = [2, 1, 0]"] ;
365 -> 366 ;
367 [label="gini = 0.0\nsamples = 1\nvalue = [1, 0, 0]"] ;
366 -> 367 ;
368 [label="X[1] <= 12.5\ngini = 0.5\nsamples = 2\nvalue = [1, 1, 0]"] ;
366 -> 368 ;
369 [label="gini = 0.0\nsamples = 1\nvalue = [0, 1, 0]"] ;
368 -> 369 ;
370 [label="gini = 0.0\nsamples = 1\nvalue = [1, 0, 0]"] ;
368 -> 370 ;
371 [label="gini = 0.0\nsamples = 3\nvalue = [3, 0, 0]"] ;
365 -> 371 ;
372 [label="gini = 0.0\nsamples = 4\nvalue = [4, 0, 0]"] ;
364 -> 372 ;
373 [label="X[0] <= 10.5\ngini = 0.32\nsamples = 5\nvalue = [4, 0, 1]"] ;
363 -> 373 ;
374 [label="X[1] <= 10.5\ngini = 0.444\nsamples = 3\nvalue = [2, 0, 1]"] ;
373 -> 374 ;
375 [label="gini = 0.0\nsamples = 1\nvalue = [1, 0, 0]"] ;
374 -> 375 ;
376 [label="X[1] <= 14.5\ngini = 0.5\nsamples = 2\nvalue = [1, 0, 1]"] ;
374 -> 376 ;
377 [label="gini = 0.0\nsamples = 1\nvalue = [0, 0, 1]"] ;
376 -> 377 ;
378 [label="gini = 0.0\nsamples = 1\nvalue = [1, 0, 0]"] ;
376 -> 378 ;
379 [label="gini = 0.0\nsamples = 2\nvalue = [2, 0, 0]"] ;
373 -> 379 ;
380 [label="gini = 0.0\nsamples = 2\nvalue = [0, 0, 2]"] ;
346 -> 380 ;
381 [label="X[2] <= 10.5\ngini = 0.54\nsamples = 10\nvalue = [3, 1, 6]"] ;
345 -> 381 ;
382 [label="X[1] <= 10.5\ngini = 0.278\nsamples = 6\nvalue = [0, 1, 5]"] ;
381 -> 382 ;
383 [label="gini = 0.0\nsamples = 3\nvalue = [0, 0, 3]"] ;
382 -> 383 ;
384 [label="X[1] <= 13.5\ngini = 0.444\nsamples = 3\nvalue = [0, 1, 2]"] ;
382 -> 384 ;
385 [label="gini = 0.0\nsamples = 1\nvalue = [0, 1, 0]"] ;
384 -> 385 ;
386 [label="gini = 0.0\nsamples = 2\nvalue = [0, 0, 2]"] ;
384 -> 386 ;
387 [label="X[0] <= 6.0\ngini = 0.375\nsamples = 4\nvalue = [3, 0, 1]"] ;
381 -> 387 ;
388 [label="gini = 0.0\nsamples = 1\nvalue = [0, 0, 1]"] ;
387 -> 388 ;
389 [label="gini = 0.0\nsamples = 3\nvalue = [3, 0, 0]"] ;
387 -> 389 ;
390 [label="X[2] <= 3.5\ngini = 0.4\nsamples = 73\nvalue = [55, 11, 7]"] ;
184 -> 390 ;
391 [label="X[0] <= 7.5\ngini = 0.165\nsamples = 33\nvalue = [30, 0, 3]"] ;
390 -> 391 ;
392 [label="gini = 0.0\nsamples = 12\nvalue = [12, 0, 0]"] ;
391 -> 392 ;
393 [label="X[0] <= 10.5\ngini = 0.245\nsamples = 21\nvalue = [18, 0, 3]"] ;
391 -> 393 ;
394 [label="X[1] <= 18.5\ngini = 0.48\nsamples = 5\nvalue = [3, 0, 2]"] ;
393 -> 394 ;
395 [label="gini = 0.0\nsamples = 1\nvalue = [0, 0, 1]"] ;
394 -> 395 ;
396 [label="X[1] <= 21.0\ngini = 0.375\nsamples = 4\nvalue = [3, 0, 1]"] ;
394 -> 396 ;
397 [label="gini = 0.0\nsamples = 3\nvalue = [3, 0, 0]"] ;
396 -> 397 ;
398 [label="gini = 0.0\nsamples = 1\nvalue = [0, 0, 1]"] ;
396 -> 398 ;
399 [label="X[2] <= 1.5\ngini = 0.117\nsamples = 16\nvalue = [15, 0, 1]"] ;
393 -> 399 ;
400 [label="X[1] <= 19.5\ngini = 0.375\nsamples = 4\nvalue = [3, 0, 1]"] ;
399 -> 400 ;
401 [label="gini = 0.0\nsamples = 2\nvalue = [2, 0, 0]"] ;
400 -> 401 ;
402 [label="X[0] <= 13.5\ngini = 0.5\nsamples = 2\nvalue = [1, 0, 1]"] ;
400 -> 402 ;
403 [label="gini = 0.0\nsamples = 1\nvalue = [1, 0, 0]"] ;
402 -> 403 ;
404 [label="gini = 0.0\nsamples = 1\nvalue = [0, 0, 1]"] ;
402 -> 404 ;
405 [label="gini = 0.0\nsamples = 12\nvalue = [12, 0, 0]"] ;
399 -> 405 ;
406 [label="X[1] <= 28.0\ngini = 0.524\nsamples = 40\nvalue = [25, 11, 4]"] ;
390 -> 406 ;
407 [label="X[1] <= 22.5\ngini = 0.485\nsamples = 37\nvalue = [25, 8, 4]"] ;
406 -> 407 ;
408 [label="X[2] <= 10.5\ngini = 0.561\nsamples = 29\nvalue = [17, 8, 4]"] ;
407 -> 408 ;
409 [label="X[0] <= 5.5\ngini = 0.538\nsamples = 28\nvalue = [17, 8, 3]"] ;
408 -> 409 ;
410 [label="X[2] <= 4.5\ngini = 0.48\nsamples = 5\nvalue = [2, 3, 0]"] ;
409 -> 410 ;
411 [label="gini = 0.0\nsamples = 1\nvalue = [0, 1, 0]"] ;
410 -> 411 ;
412 [label="X[2] <= 6.0\ngini = 0.5\nsamples = 4\nvalue = [2, 2, 0]"] ;
410 -> 412 ;
413 [label="gini = 0.0\nsamples = 1\nvalue = [1, 0, 0]"] ;
412 -> 413 ;
414 [label="X[2] <= 8.0\ngini = 0.444\nsamples = 3\nvalue = [1, 2, 0]"] ;
412 -> 414 ;
415 [label="gini = 0.0\nsamples = 1\nvalue = [0, 1, 0]"] ;
414 -> 415 ;
416 [label="X[2] <= 9.5\ngini = 0.5\nsamples = 2\nvalue = [1, 1, 0]"] ;
414 -> 416 ;
417 [label="gini = 0.0\nsamples = 1\nvalue = [1, 0, 0]"] ;
416 -> 417 ;
418 [label="gini = 0.0\nsamples = 1\nvalue = [0, 1, 0]"] ;
416 -> 418 ;
419 [label="X[1] <= 21.5\ngini = 0.51\nsamples = 23\nvalue = [15, 5, 3]"] ;
409 -> 419 ;
420 [label="X[1] <= 18.5\ngini = 0.49\nsamples = 21\nvalue = [14, 5, 2]"] ;
419 -> 420 ;
421 [label="X[2] <= 4.5\ngini = 0.46\nsamples = 10\nvalue = [7, 1, 2]"] ;
420 -> 421 ;
422 [label="X[0] <= 7.5\ngini = 0.32\nsamples = 5\nvalue = [4, 1, 0]"] ;
421 -> 422 ;
423 [label="gini = 0.0\nsamples = 2\nvalue = [2, 0, 0]"] ;
422 -> 423 ;
424 [label="X[0] <= 18.0\ngini = 0.444\nsamples = 3\nvalue = [2, 1, 0]"] ;
422 -> 424 ;
425 [label="gini = 0.5\nsamples = 2\nvalue = [1, 1, 0]"] ;
424 -> 425 ;
426 [label="gini = 0.0\nsamples = 1\nvalue = [1, 0, 0]"] ;
424 -> 426 ;
427 [label="X[0] <= 10.5\ngini = 0.48\nsamples = 5\nvalue = [3, 0, 2]"] ;
421 -> 427 ;
428 [label="X[0] <= 6.5\ngini = 0.375\nsamples = 4\nvalue = [3, 0, 1]"] ;
427 -> 428 ;
429 [label="X[2] <= 6.5\ngini = 0.5\nsamples = 2\nvalue = [1, 0, 1]"] ;
428 -> 429 ;
430 [label="gini = 0.0\nsamples = 1\nvalue = [0, 0, 1]"] ;
429 -> 430 ;
431 [label="gini = 0.0\nsamples = 1\nvalue = [1, 0, 0]"] ;
429 -> 431 ;
432 [label="gini = 0.0\nsamples = 2\nvalue = [2, 0, 0]"] ;
428 -> 432 ;
433 [label="gini = 0.0\nsamples = 1\nvalue = [0, 0, 1]"] ;
427 -> 433 ;
434 [label="X[0] <= 9.5\ngini = 0.463\nsamples = 11\nvalue = [7, 4, 0]"] ;
420 -> 434 ;
435 [label="X[1] <= 20.0\ngini = 0.48\nsamples = 5\nvalue = [2, 3, 0]"] ;
434 -> 435 ;
436 [label="gini = 0.0\nsamples = 1\nvalue = [0, 1, 0]"] ;
435 -> 436 ;
437 [label="X[2] <= 5.5\ngini = 0.5\nsamples = 4\nvalue = [2, 2, 0]"] ;
435 -> 437 ;
438 [label="X[2] <= 4.5\ngini = 0.444\nsamples = 3\nvalue = [1, 2, 0]"] ;
437 -> 438 ;
439 [label="gini = 0.5\nsamples = 2\nvalue = [1, 1, 0]"] ;
438 -> 439 ;
440 [label="gini = 0.0\nsamples = 1\nvalue = [0, 1, 0]"] ;
438 -> 440 ;
441 [label="gini = 0.0\nsamples = 1\nvalue = [1, 0, 0]"] ;
437 -> 441 ;
442 [label="X[2] <= 5.5\ngini = 0.278\nsamples = 6\nvalue = [5, 1, 0]"] ;
434 -> 442 ;
443 [label="gini = 0.0\nsamples = 3\nvalue = [3, 0, 0]"] ;
442 -> 443 ;
444 [label="X[2] <= 6.5\ngini = 0.444\nsamples = 3\nvalue = [2, 1, 0]"] ;
442 -> 444 ;
445 [label="gini = 0.0\nsamples = 1\nvalue = [0, 1, 0]"] ;
444 -> 445 ;
446 [label="gini = 0.0\nsamples = 2\nvalue = [2, 0, 0]"] ;
444 -> 446 ;
447 [label="X[0] <= 8.5\ngini = 0.5\nsamples = 2\nvalue = [1, 0, 1]"] ;
419 -> 447 ;
448 [label="gini = 0.0\nsamples = 1\nvalue = [1, 0, 0]"] ;
447 -> 448 ;
449 [label="gini = 0.0\nsamples = 1\nvalue = [0, 0, 1]"] ;
447 -> 449 ;
450 [label="gini = 0.0\nsamples = 1\nvalue = [0, 0, 1]"] ;
408 -> 450 ;
451 [label="gini = 0.0\nsamples = 8\nvalue = [8, 0, 0]"] ;
407 -> 451 ;
452 [label="gini = 0.0\nsamples = 3\nvalue = [0, 3, 0]"] ;
406 -> 452 ;
}
